<?xml version="1.0" encoding="UTF-8" standalone="yes"?>
<PMML xmlns="http://www.dmg.org/PMML-4_4" xmlns:data="http://jpmml.org/jpmml-model/InlineTable" version="4.4">
	<Header>
		<Application name="SkLearn2PMML package" version="0.95.0"/>
		<Timestamp>2023-10-24T09:27:06Z</Timestamp>
	</Header>
	<DataDictionary>
		<DataField name="y" optype="categorical" dataType="integer">
			<Value value="0"/>
			<Value value="1"/>
			<Value value="2"/>
			<Value value="3"/>
		</DataField>
		<DataField name="x1" optype="continuous" dataType="float">
			<Value value="NaN" property="missing"/>
		</DataField>
		<DataField name="x2" optype="continuous" dataType="float">
			<Value value="NaN" property="missing"/>
		</DataField>
		<DataField name="x3" optype="continuous" dataType="float">
			<Value value="NaN" property="missing"/>
		</DataField>
		<DataField name="x4" optype="continuous" dataType="float">
			<Value value="NaN" property="missing"/>
		</DataField>
	</DataDictionary>
	<MiningModel functionName="classification" algorithmName="XGBoost (GBTree)" x-mathContext="float">
		<MiningSchema>
			<MiningField name="y" usageType="target"/>
			<MiningField name="x1"/>
			<MiningField name="x2"/>
			<MiningField name="x3"/>
			<MiningField name="x4"/>
		</MiningSchema>
		<Segmentation multipleModelMethod="modelChain" missingPredictionTreatment="returnMissing">
			<Segment id="1">
				<True/>
				<MiningModel functionName="regression" x-mathContext="float">
					<MiningSchema>
						<MiningField name="x1"/>
						<MiningField name="x2"/>
						<MiningField name="x3"/>
						<MiningField name="x4"/>
					</MiningSchema>
					<Output>
						<OutputField name="xgbValue(0)" optype="continuous" dataType="float" isFinalResult="false"/>
					</Output>
					<Targets>
						<Target rescaleConstant="0.5"/>
					</Targets>
					<Segmentation multipleModelMethod="sum" missingPredictionTreatment="returnMissing">
						<Segment id="1">
							<True/>
							<TreeModel functionName="regression" noTrueChildStrategy="returnLastPrediction" x-mathContext="float">
								<MiningSchema>
									<MiningField name="x1"/>
								</MiningSchema>
								<Node score="-0.0020870038">
									<True/>
									<Node score="-0.006371065">
										<SimplePredicate field="x1" operator="greaterOrEqual" value="-0.17199999"/>
									</Node>
									<Node score="0.013603608">
										<SimplePredicate field="x1" operator="greaterOrEqual" value="-1.5855"/>
									</Node>
								</Node>
							</TreeModel>
						</Segment>
						<Segment id="2">
							<True/>
							<TreeModel functionName="regression" noTrueChildStrategy="returnLastPrediction" x-mathContext="float">
								<MiningSchema>
									<MiningField name="x1"/>
								</MiningSchema>
								<Node score="-0.0038237032">
									<True/>
									<Node score="-0.006395298">
										<SimplePredicate field="x1" operator="greaterOrEqual" value="-0.12499994"/>
									</Node>
									<Node score="0.010602017">
										<SimplePredicate field="x1" operator="greaterOrEqual" value="-1.4844999"/>
									</Node>
								</Node>
							</TreeModel>
						</Segment>
						<Segment id="3">
							<True/>
							<TreeModel functionName="regression" noTrueChildStrategy="returnLastPrediction" x-mathContext="float">
								<MiningSchema>
									<MiningField name="x1"/>
								</MiningSchema>
								<Node score="-0.00634193">
									<True/>
									<Node score="-0.0063861087">
										<SimplePredicate field="x1" operator="greaterOrEqual" value="-0.17199999"/>
									</Node>
									<Node score="0.012959389">
										<SimplePredicate field="x1" operator="greaterOrEqual" value="-1.509"/>
									</Node>
								</Node>
							</TreeModel>
						</Segment>
						<Segment id="4">
							<True/>
							<TreeModel functionName="regression" noTrueChildStrategy="returnLastPrediction" x-mathContext="float">
								<MiningSchema>
									<MiningField name="x1"/>
									<MiningField name="x3"/>
								</MiningSchema>
								<Node score="-0.00635915">
									<True/>
									<Node score="0.010422056">
										<SimplePredicate field="x1" operator="greaterOrEqual" value="-1.7605"/>
										<Node score="-0.0040297597">
											<SimplePredicate field="x3" operator="greaterOrEqual" value="-3.216989"/>
										</Node>
									</Node>
								</Node>
							</TreeModel>
						</Segment>
						<Segment id="5">
							<True/>
							<TreeModel functionName="regression" noTrueChildStrategy="returnLastPrediction" x-mathContext="float">
								<MiningSchema>
									<MiningField name="x1"/>
									<MiningField name="x3"/>
								</MiningSchema>
								<Node score="-0.0063734837">
									<True/>
									<Node score="0.011072756">
										<SimplePredicate field="x1" operator="greaterOrEqual" value="-1.6805"/>
										<Node score="-0.0041781743">
											<SimplePredicate field="x3" operator="greaterOrEqual" value="-2.9208097"/>
										</Node>
									</Node>
								</Node>
							</TreeModel>
						</Segment>
						<Segment id="6">
							<True/>
							<TreeModel functionName="regression" noTrueChildStrategy="returnLastPrediction" x-mathContext="float">
								<MiningSchema>
									<MiningField name="x1"/>
									<MiningField name="x3"/>
								</MiningSchema>
								<Node score="-0.0032035047">
									<True/>
									<Node score="-0.0063173953">
										<SimplePredicate field="x3" operator="greaterOrEqual" value="-3.9142137"/>
									</Node>
									<Node score="0.009447927">
										<SimplePredicate field="x1" operator="greaterOrEqual" value="-0.8605"/>
									</Node>
								</Node>
							</TreeModel>
						</Segment>
						<Segment id="7">
							<True/>
							<TreeModel functionName="regression" noTrueChildStrategy="returnLastPrediction" x-mathContext="float">
								<MiningSchema>
									<MiningField name="x1"/>
								</MiningSchema>
								<Node score="-0.0030573413">
									<True/>
									<Node score="-0.0063071237">
										<SimplePredicate field="x1" operator="greaterOrEqual" value="-0.33999997"/>
									</Node>
									<Node score="0.010095292">
										<SimplePredicate field="x1" operator="greaterOrEqual" value="-1.704"/>
									</Node>
								</Node>
							</TreeModel>
						</Segment>
						<Segment id="8">
							<True/>
							<TreeModel functionName="regression" noTrueChildStrategy="returnLastPrediction" x-mathContext="float">
								<MiningSchema>
									<MiningField name="x1"/>
								</MiningSchema>
								<Node score="-0.006287935">
									<True/>
									<Node score="-0.0063226176">
										<SimplePredicate field="x1" operator="greaterOrEqual" value="-0.17199999"/>
									</Node>
									<Node score="0.009416068">
										<SimplePredicate field="x1" operator="greaterOrEqual" value="-1.4195"/>
									</Node>
								</Node>
							</TreeModel>
						</Segment>
						<Segment id="9">
							<True/>
							<TreeModel functionName="regression" noTrueChildStrategy="returnLastPrediction" x-mathContext="float">
								<MiningSchema>
									<MiningField name="x1"/>
								</MiningSchema>
								<Node score="-0.0062483065">
									<True/>
									<Node score="-0.006284353">
										<SimplePredicate field="x1" operator="greaterOrEqual" value="-0.17199999"/>
									</Node>
									<Node score="0.0109255705">
										<SimplePredicate field="x1" operator="greaterOrEqual" value="-2.124"/>
									</Node>
								</Node>
							</TreeModel>
						</Segment>
						<Segment id="10">
							<True/>
							<TreeModel functionName="regression" noTrueChildStrategy="returnLastPrediction" x-mathContext="float">
								<MiningSchema>
									<MiningField name="x1"/>
									<MiningField name="x2"/>
								</MiningSchema>
								<Node score="-0.0063167913">
									<True/>
									<Node score="0.007892584">
										<SimplePredicate field="x1" operator="greaterOrEqual" value="-1.6805"/>
										<Node score="-0.006206305">
											<SimplePredicate field="x1" operator="greaterOrEqual" value="-0.13499993"/>
										</Node>
									</Node>
									<Node score="0.0059863217">
										<SimplePredicate field="x2" operator="greaterOrEqual" value="-48.110214"/>
									</Node>
								</Node>
							</TreeModel>
						</Segment>
						<Segment id="11">
							<True/>
							<TreeModel functionName="regression" noTrueChildStrategy="returnLastPrediction" x-mathContext="float">
								<MiningSchema>
									<MiningField name="x1"/>
									<MiningField name="x2"/>
								</MiningSchema>
								<Node score="-0.005904413">
									<True/>
									<Node score="-0.0063515366">
										<SimplePredicate field="x2" operator="greaterOrEqual" value="-284.99475"/>
										<Node score="7.6076924E-4">
											<SimplePredicate field="x1" operator="greaterOrEqual" value="-0.939"/>
										</Node>
									</Node>
									<Node score="0.017182609">
										<SimplePredicate field="x1" operator="greaterOrEqual" value="-1.9275"/>
									</Node>
								</Node>
							</TreeModel>
						</Segment>
						<Segment id="12">
							<True/>
							<TreeModel functionName="regression" noTrueChildStrategy="returnLastPrediction" x-mathContext="float">
								<MiningSchema>
									<MiningField name="x1"/>
								</MiningSchema>
								<Node score="-0.0016300626">
									<True/>
									<Node score="-0.006333145">
										<SimplePredicate field="x1" operator="greaterOrEqual" value="-0.3115"/>
									</Node>
									<Node score="0.012253803">
										<SimplePredicate field="x1" operator="greaterOrEqual" value="-1.309"/>
									</Node>
								</Node>
							</TreeModel>
						</Segment>
						<Segment id="13">
							<True/>
							<TreeModel functionName="regression" noTrueChildStrategy="returnLastPrediction" x-mathContext="float">
								<MiningSchema>
									<MiningField name="x1"/>
									<MiningField name="x2"/>
								</MiningSchema>
								<Node score="0.0014000046">
									<True/>
									<Node score="-0.006243969">
										<SimplePredicate field="x1" operator="greaterOrEqual" value="-0.102"/>
									</Node>
									<Node score="0.017168747">
										<SimplePredicate field="x2" operator="greaterOrEqual" value="-36.73515"/>
									</Node>
								</Node>
							</TreeModel>
						</Segment>
						<Segment id="14">
							<True/>
							<TreeModel functionName="regression" noTrueChildStrategy="returnLastPrediction" x-mathContext="float">
								<MiningSchema>
									<MiningField name="x1"/>
								</MiningSchema>
								<Node score="-0.006203762">
									<True/>
									<Node score="-0.0062815547">
										<SimplePredicate field="x1" operator="greaterOrEqual" value="-0.33850002"/>
									</Node>
									<Node score="0.008645807">
										<SimplePredicate field="x1" operator="greaterOrEqual" value="-2.0325"/>
									</Node>
								</Node>
							</TreeModel>
						</Segment>
						<Segment id="15">
							<True/>
							<TreeModel functionName="regression" noTrueChildStrategy="returnLastPrediction" x-mathContext="float">
								<MiningSchema>
									<MiningField name="x1"/>
								</MiningSchema>
								<Node score="-0.00609473">
									<True/>
									<Node score="-0.0063002403">
										<SimplePredicate field="x1" operator="greaterOrEqual" value="-0.3115"/>
									</Node>
									<Node score="0.011944339">
										<SimplePredicate field="x1" operator="greaterOrEqual" value="-1.7605"/>
									</Node>
								</Node>
							</TreeModel>
						</Segment>
						<Segment id="16">
							<True/>
							<TreeModel functionName="regression" noTrueChildStrategy="returnLastPrediction" x-mathContext="float">
								<MiningSchema>
									<MiningField name="x1"/>
									<MiningField name="x3"/>
								</MiningSchema>
								<Node score="-0.0062564407">
									<True/>
									<Node score="-0.006269262">
										<SimplePredicate field="x3" operator="greaterOrEqual" value="-1.7071068"/>
									</Node>
									<Node score="0.009311658">
										<SimplePredicate field="x1" operator="greaterOrEqual" value="-1.6805"/>
									</Node>
								</Node>
							</TreeModel>
						</Segment>
						<Segment id="17">
							<True/>
							<TreeModel functionName="regression" noTrueChildStrategy="returnLastPrediction" x-mathContext="float">
								<MiningSchema>
									<MiningField name="x1"/>
								</MiningSchema>
								<Node score="-0.0062228544">
									<True/>
									<Node score="0.010178083">
										<SimplePredicate field="x1" operator="greaterOrEqual" value="-2.0325"/>
										<Node score="-0.006152159">
											<SimplePredicate field="x1" operator="greaterOrEqual" value="-0.3125"/>
										</Node>
									</Node>
								</Node>
							</TreeModel>
						</Segment>
						<Segment id="18">
							<True/>
							<TreeModel functionName="regression" noTrueChildStrategy="returnLastPrediction" x-mathContext="float">
								<MiningSchema>
									<MiningField name="x1"/>
									<MiningField name="x3"/>
								</MiningSchema>
								<Node score="-0.006289389">
									<True/>
									<Node score="-0.0062612677">
										<SimplePredicate field="x3" operator="greaterOrEqual" value="-3.618034"/>
									</Node>
									<Node score="0.013822246">
										<SimplePredicate field="x1" operator="greaterOrEqual" value="-1.4054999"/>
									</Node>
								</Node>
							</TreeModel>
						</Segment>
						<Segment id="19">
							<True/>
							<TreeModel functionName="regression" noTrueChildStrategy="returnLastPrediction" x-mathContext="float">
								<MiningSchema>
									<MiningField name="x1"/>
								</MiningSchema>
								<Node score="-0.006273977">
									<True/>
									<Node score="0.011964752">
										<SimplePredicate field="x1" operator="greaterOrEqual" value="-1.562"/>
										<Node score="-0.001620592">
											<SimplePredicate field="x1" operator="greaterOrEqual" value="-0.76899993"/>
										</Node>
									</Node>
								</Node>
							</TreeModel>
						</Segment>
						<Segment id="20">
							<True/>
							<TreeModel functionName="regression" noTrueChildStrategy="returnLastPrediction" x-mathContext="float">
								<MiningSchema>
									<MiningField name="x1"/>
								</MiningSchema>
								<Node score="-0.0060911844">
									<True/>
									<Node score="-0.0061712503">
										<SimplePredicate field="x1" operator="greaterOrEqual" value="-0.11199999"/>
									</Node>
									<Node score="0.007591263">
										<SimplePredicate field="x1" operator="greaterOrEqual" value="-2.0549998"/>
									</Node>
								</Node>
							</TreeModel>
						</Segment>
						<Segment id="21">
							<True/>
							<TreeModel functionName="regression" noTrueChildStrategy="returnLastPrediction" x-mathContext="float">
								<MiningSchema>
									<MiningField name="x1"/>
									<MiningField name="x2"/>
								</MiningSchema>
								<Node score="-0.0037610233">
									<True/>
									<Node score="-0.006186607">
										<SimplePredicate field="x1" operator="greaterOrEqual" value="-0.14700001"/>
									</Node>
									<Node score="0.011328218">
										<SimplePredicate field="x2" operator="greaterOrEqual" value="-82.622734"/>
									</Node>
								</Node>
							</TreeModel>
						</Segment>
						<Segment id="22">
							<True/>
							<TreeModel functionName="regression" noTrueChildStrategy="returnLastPrediction" x-mathContext="float">
								<MiningSchema>
									<MiningField name="x1"/>
								</MiningSchema>
								<Node score="-0.0062305997">
									<True/>
									<Node score="-0.0062273834">
										<SimplePredicate field="x1" operator="greaterOrEqual" value="-0.25849998"/>
									</Node>
									<Node score="0.0117946705">
										<SimplePredicate field="x1" operator="greaterOrEqual" value="-1.4844999"/>
									</Node>
								</Node>
							</TreeModel>
						</Segment>
						<Segment id="23">
							<True/>
							<TreeModel functionName="regression" noTrueChildStrategy="returnLastPrediction" x-mathContext="float">
								<MiningSchema>
									<MiningField name="x1"/>
								</MiningSchema>
								<Node score="-0.006133147">
									<True/>
									<Node score="-0.00629813">
										<SimplePredicate field="x1" operator="greaterOrEqual" value="-0.52949995"/>
									</Node>
									<Node score="0.008777496">
										<SimplePredicate field="x1" operator="greaterOrEqual" value="-2.124"/>
									</Node>
								</Node>
							</TreeModel>
						</Segment>
						<Segment id="24">
							<True/>
							<TreeModel functionName="regression" noTrueChildStrategy="returnLastPrediction" x-mathContext="float">
								<MiningSchema>
									<MiningField name="x1"/>
								</MiningSchema>
								<Node score="-0.0061926707">
									<True/>
									<Node score="-0.006304264">
										<SimplePredicate field="x1" operator="greaterOrEqual" value="-0.51699996"/>
									</Node>
									<Node score="0.011830444">
										<SimplePredicate field="x1" operator="greaterOrEqual" value="-1.704"/>
									</Node>
								</Node>
							</TreeModel>
						</Segment>
						<Segment id="25">
							<True/>
							<TreeModel functionName="regression" noTrueChildStrategy="returnLastPrediction" x-mathContext="float">
								<MiningSchema>
									<MiningField name="x1"/>
									<MiningField name="x2"/>
									<MiningField name="x4"/>
								</MiningSchema>
								<Node score="-0.005926946">
									<True/>
									<Node score="-0.0064199525">
										<SimplePredicate field="x4" operator="greaterOrEqual" value="-20.468143"/>
										<Node score="0.0030704055">
											<SimplePredicate field="x2" operator="greaterOrEqual" value="-8.551303"/>
										</Node>
									</Node>
									<Node score="0.008815252">
										<SimplePredicate field="x1" operator="greaterOrEqual" value="-1.8104999"/>
									</Node>
								</Node>
							</TreeModel>
						</Segment>
						<Segment id="26">
							<True/>
							<TreeModel functionName="regression" noTrueChildStrategy="returnLastPrediction" x-mathContext="float">
								<MiningSchema>
									<MiningField name="x1"/>
									<MiningField name="x2"/>
								</MiningSchema>
								<Node score="-0.0062082713">
									<True/>
									<Node score="0.010107109">
										<SimplePredicate field="x1" operator="greaterOrEqual" value="-1.6805"/>
										<Node score="-0.0060405405">
											<SimplePredicate field="x1" operator="greaterOrEqual" value="-0.11199999"/>
										</Node>
									</Node>
									<Node score="0.0062634656">
										<SimplePredicate field="x2" operator="greaterOrEqual" value="-48.110214"/>
									</Node>
								</Node>
							</TreeModel>
						</Segment>
						<Segment id="27">
							<True/>
							<TreeModel functionName="regression" noTrueChildStrategy="returnLastPrediction" x-mathContext="float">
								<MiningSchema>
									<MiningField name="x1"/>
								</MiningSchema>
								<Node score="-0.006095835">
									<True/>
									<Node score="0.010880384">
										<SimplePredicate field="x1" operator="greaterOrEqual" value="-1.7605"/>
										<Node score="-0.006096465">
											<SimplePredicate field="x1" operator="greaterOrEqual" value="-0.15999997"/>
										</Node>
									</Node>
								</Node>
							</TreeModel>
						</Segment>
						<Segment id="28">
							<True/>
							<TreeModel functionName="regression" noTrueChildStrategy="returnLastPrediction" x-mathContext="float">
								<MiningSchema>
									<MiningField name="x1"/>
								</MiningSchema>
								<Node score="-0.0061535845">
									<True/>
									<Node score="-0.006143497">
										<SimplePredicate field="x1" operator="greaterOrEqual" value="-0.15999997"/>
									</Node>
									<Node score="0.009448834">
										<SimplePredicate field="x1" operator="greaterOrEqual" value="-1.6115"/>
									</Node>
								</Node>
							</TreeModel>
						</Segment>
						<Segment id="29">
							<True/>
							<TreeModel functionName="regression" noTrueChildStrategy="returnLastPrediction" x-mathContext="float">
								<MiningSchema>
									<MiningField name="x1"/>
								</MiningSchema>
								<Node score="-0.0060007316">
									<True/>
									<Node score="-0.006169008">
										<SimplePredicate field="x1" operator="greaterOrEqual" value="-0.3115"/>
									</Node>
									<Node score="0.006945262">
										<SimplePredicate field="x1" operator="greaterOrEqual" value="-1.6115"/>
									</Node>
								</Node>
							</TreeModel>
						</Segment>
						<Segment id="30">
							<True/>
							<TreeModel functionName="regression" noTrueChildStrategy="returnLastPrediction" x-mathContext="float">
								<MiningSchema>
									<MiningField name="x1"/>
									<MiningField name="x2"/>
								</MiningSchema>
								<Node score="-0.00362285">
									<True/>
									<Node score="0.013690742">
										<SimplePredicate field="x1" operator="greaterOrEqual" value="-0.54099995"/>
										<Node score="-0.006386607">
											<SimplePredicate field="x2" operator="greaterOrEqual" value="-115.83746"/>
										</Node>
									</Node>
									<Node score="0.01283011">
										<SimplePredicate field="x1" operator="greaterOrEqual" value="-1.562"/>
									</Node>
								</Node>
							</TreeModel>
						</Segment>
						<Segment id="31">
							<True/>
							<TreeModel functionName="regression" noTrueChildStrategy="returnLastPrediction" x-mathContext="float">
								<MiningSchema>
									<MiningField name="x1"/>
									<MiningField name="x3"/>
									<MiningField name="x4"/>
								</MiningSchema>
								<Node score="-0.005962656">
									<True/>
									<Node score="-0.006413787">
										<SimplePredicate field="x3" operator="greaterOrEqual" value="-10.3003235"/>
										<Node score="0.002642858">
											<SimplePredicate field="x4" operator="greaterOrEqual" value="-4.9352407"/>
										</Node>
									</Node>
									<Node score="0.012201591">
										<SimplePredicate field="x1" operator="greaterOrEqual" value="-2.085"/>
									</Node>
								</Node>
							</TreeModel>
						</Segment>
						<Segment id="32">
							<True/>
							<TreeModel functionName="regression" noTrueChildStrategy="returnLastPrediction" x-mathContext="float">
								<MiningSchema>
									<MiningField name="x1"/>
									<MiningField name="x2"/>
								</MiningSchema>
								<Node score="0.012261605">
									<True/>
									<Node score="0.009657852">
										<SimplePredicate field="x2" operator="greaterOrEqual" value="-106.42551"/>
										<Node score="-0.006012733">
											<SimplePredicate field="x1" operator="greaterOrEqual" value="-0.19949996"/>
										</Node>
									</Node>
									<Node score="-0.0064685876">
										<SimplePredicate field="x2" operator="greaterOrEqual" value="-402.93555"/>
									</Node>
								</Node>
							</TreeModel>
						</Segment>
						<Segment id="33">
							<True/>
							<TreeModel functionName="regression" noTrueChildStrategy="returnLastPrediction" x-mathContext="float">
								<MiningSchema>
									<MiningField name="x1"/>
								</MiningSchema>
								<Node score="-0.0039186287">
									<True/>
									<Node score="-0.006190116">
										<SimplePredicate field="x1" operator="greaterOrEqual" value="-0.33850002"/>
									</Node>
									<Node score="0.010316263">
										<SimplePredicate field="x1" operator="greaterOrEqual" value="-1.2925"/>
									</Node>
								</Node>
							</TreeModel>
						</Segment>
						<Segment id="34">
							<True/>
							<TreeModel functionName="regression" noTrueChildStrategy="returnLastPrediction" x-mathContext="float">
								<MiningSchema>
									<MiningField name="x1"/>
								</MiningSchema>
								<Node score="-0.0060133557">
									<True/>
									<Node score="-0.0061043217">
										<SimplePredicate field="x1" operator="greaterOrEqual" value="-0.15999997"/>
									</Node>
									<Node score="0.009551173">
										<SimplePredicate field="x1" operator="greaterOrEqual" value="-1.7175"/>
									</Node>
								</Node>
							</TreeModel>
						</Segment>
						<Segment id="35">
							<True/>
							<TreeModel functionName="regression" noTrueChildStrategy="returnLastPrediction" x-mathContext="float">
								<MiningSchema>
									<MiningField name="x1"/>
								</MiningSchema>
								<Node score="-0.006001764">
									<True/>
									<Node score="-0.0062134">
										<SimplePredicate field="x1" operator="greaterOrEqual" value="-0.435"/>
									</Node>
									<Node score="0.0060145548">
										<SimplePredicate field="x1" operator="greaterOrEqual" value="-1.98"/>
									</Node>
								</Node>
							</TreeModel>
						</Segment>
						<Segment id="36">
							<True/>
							<TreeModel functionName="regression" noTrueChildStrategy="returnLastPrediction" x-mathContext="float">
								<MiningSchema>
									<MiningField name="x1"/>
									<MiningField name="x3"/>
								</MiningSchema>
								<Node score="-0.0020400446">
									<True/>
									<Node score="8.47469E-6">
										<SimplePredicate field="x3" operator="greaterOrEqual" value="-36.74946"/>
										<Node score="-0.006179033">
											<SimplePredicate field="x3" operator="greaterOrEqual" value="-3.9154758"/>
										</Node>
									</Node>
									<Node score="0.012301207">
										<SimplePredicate field="x1" operator="greaterOrEqual" value="-1.7605"/>
									</Node>
								</Node>
							</TreeModel>
						</Segment>
						<Segment id="37">
							<True/>
							<TreeModel functionName="regression" noTrueChildStrategy="returnLastPrediction" x-mathContext="float">
								<MiningSchema>
									<MiningField name="x1"/>
								</MiningSchema>
								<Node score="-0.0030158106">
									<True/>
									<Node score="-0.002655277">
										<SimplePredicate field="x1" operator="greaterOrEqual" value="-0.719"/>
										<Node score="-0.006237575">
											<SimplePredicate field="x1" operator="greaterOrEqual" value="-0.51699996"/>
										</Node>
									</Node>
									<Node score="0.01105103">
										<SimplePredicate field="x1" operator="greaterOrEqual" value="-1.5879999"/>
									</Node>
								</Node>
							</TreeModel>
						</Segment>
						<Segment id="38">
							<True/>
							<TreeModel functionName="regression" noTrueChildStrategy="returnLastPrediction" x-mathContext="float">
								<MiningSchema>
									<MiningField name="x1"/>
								</MiningSchema>
								<Node score="-0.0061181625">
									<True/>
									<Node score="0.00749681">
										<SimplePredicate field="x1" operator="greaterOrEqual" value="-1.6805"/>
										<Node score="-0.004296526">
											<SimplePredicate field="x1" operator="greaterOrEqual" value="-0.52599996"/>
										</Node>
									</Node>
								</Node>
							</TreeModel>
						</Segment>
						<Segment id="39">
							<True/>
							<TreeModel functionName="regression" noTrueChildStrategy="returnLastPrediction" x-mathContext="float">
								<MiningSchema>
									<MiningField name="x1"/>
									<MiningField name="x3"/>
								</MiningSchema>
								<Node score="-0.0010334535">
									<True/>
									<Node score="-0.0059175384">
										<SimplePredicate field="x1" operator="greaterOrEqual" value="-0.102"/>
									</Node>
									<Node score="0.012640217">
										<SimplePredicate field="x3" operator="greaterOrEqual" value="-19.7104"/>
									</Node>
								</Node>
							</TreeModel>
						</Segment>
						<Segment id="40">
							<True/>
							<TreeModel functionName="regression" noTrueChildStrategy="returnLastPrediction" x-mathContext="float">
								<MiningSchema>
									<MiningField name="x1"/>
									<MiningField name="x3"/>
								</MiningSchema>
								<Node score="-0.0060237865">
									<True/>
									<Node score="-0.006086263">
										<SimplePredicate field="x3" operator="greaterOrEqual" value="-1.0"/>
									</Node>
									<Node score="0.0090450775">
										<SimplePredicate field="x1" operator="greaterOrEqual" value="-1.6115"/>
									</Node>
								</Node>
							</TreeModel>
						</Segment>
						<Segment id="41">
							<True/>
							<TreeModel functionName="regression" noTrueChildStrategy="returnLastPrediction" x-mathContext="float">
								<MiningSchema>
									<MiningField name="x3"/>
								</MiningSchema>
								<Node score="2.5136888E-4">
									<True/>
									<Node score="-0.0060908664">
										<SimplePredicate field="x3" operator="greaterOrEqual" value="-1.7071068"/>
									</Node>
									<Node score="0.012608607">
										<SimplePredicate field="x3" operator="greaterOrEqual" value="-165.64713"/>
									</Node>
								</Node>
							</TreeModel>
						</Segment>
						<Segment id="42">
							<True/>
							<TreeModel functionName="regression" noTrueChildStrategy="returnLastPrediction" x-mathContext="float">
								<MiningSchema>
									<MiningField name="x1"/>
									<MiningField name="x2"/>
								</MiningSchema>
								<Node score="0.012893051">
									<True/>
									<Node score="6.146917E-4">
										<SimplePredicate field="x2" operator="greaterOrEqual" value="-286.2968"/>
										<Node score="-0.005997002">
											<SimplePredicate field="x1" operator="greaterOrEqual" value="-0.15999997"/>
										</Node>
									</Node>
								</Node>
							</TreeModel>
						</Segment>
						<Segment id="43">
							<True/>
							<TreeModel functionName="regression" noTrueChildStrategy="returnLastPrediction" x-mathContext="float">
								<MiningSchema>
									<MiningField name="x1"/>
									<MiningField name="x2"/>
								</MiningSchema>
								<Node score="-0.0038722085">
									<True/>
									<Node score="0.011532572">
										<SimplePredicate field="x1" operator="greaterOrEqual" value="-0.6975"/>
										<Node score="-0.0067735035">
											<SimplePredicate field="x2" operator="greaterOrEqual" value="-355.2085"/>
										</Node>
									</Node>
									<Node score="0.011425317">
										<SimplePredicate field="x1" operator="greaterOrEqual" value="-1.6805"/>
									</Node>
								</Node>
							</TreeModel>
						</Segment>
						<Segment id="44">
							<True/>
							<TreeModel functionName="regression" noTrueChildStrategy="returnLastPrediction" x-mathContext="float">
								<MiningSchema>
									<MiningField name="x1"/>
									<MiningField name="x2"/>
								</MiningSchema>
								<Node score="-0.0015364623">
									<True/>
									<Node score="-0.005941056">
										<SimplePredicate field="x1" operator="greaterOrEqual" value="-0.35399997"/>
									</Node>
									<Node score="0.011889356">
										<SimplePredicate field="x2" operator="greaterOrEqual" value="-112.037704"/>
									</Node>
								</Node>
							</TreeModel>
						</Segment>
						<Segment id="45">
							<True/>
							<TreeModel functionName="regression" noTrueChildStrategy="returnLastPrediction" x-mathContext="float">
								<MiningSchema>
									<MiningField name="x1"/>
								</MiningSchema>
								<Node score="-0.0058337804">
									<True/>
									<Node score="-0.0060872175">
										<SimplePredicate field="x1" operator="greaterOrEqual" value="-0.537"/>
									</Node>
									<Node score="0.008563279">
										<SimplePredicate field="x1" operator="greaterOrEqual" value="-2.0325"/>
									</Node>
								</Node>
							</TreeModel>
						</Segment>
						<Segment id="46">
							<True/>
							<TreeModel functionName="regression" noTrueChildStrategy="returnLastPrediction" x-mathContext="float">
								<MiningSchema>
									<MiningField name="x1"/>
								</MiningSchema>
								<Node score="-0.0058494094">
									<True/>
									<Node score="-0.0060275747">
										<SimplePredicate field="x1" operator="greaterOrEqual" value="-0.3115"/>
									</Node>
									<Node score="0.006988275">
										<SimplePredicate field="x1" operator="greaterOrEqual" value="-2.0549998"/>
									</Node>
								</Node>
							</TreeModel>
						</Segment>
						<Segment id="47">
							<True/>
							<TreeModel functionName="regression" noTrueChildStrategy="returnLastPrediction" x-mathContext="float">
								<MiningSchema>
									<MiningField name="x1"/>
								</MiningSchema>
								<Node score="-0.0030912315">
									<True/>
									<Node score="-0.00581744">
										<SimplePredicate field="x1" operator="greaterOrEqual" value="0.057500005"/>
									</Node>
									<Node score="0.00959824">
										<SimplePredicate field="x1" operator="greaterOrEqual" value="-1.4844999"/>
									</Node>
								</Node>
							</TreeModel>
						</Segment>
						<Segment id="48">
							<True/>
							<TreeModel functionName="regression" noTrueChildStrategy="returnLastPrediction" x-mathContext="float">
								<MiningSchema>
									<MiningField name="x1"/>
									<MiningField name="x3"/>
								</MiningSchema>
								<Node score="-0.0057953424">
									<True/>
									<Node score="-0.0062347194">
										<SimplePredicate field="x3" operator="greaterOrEqual" value="-3.216989"/>
									</Node>
									<Node score="0.008942051">
										<SimplePredicate field="x1" operator="greaterOrEqual" value="-1.8104999"/>
									</Node>
								</Node>
							</TreeModel>
						</Segment>
						<Segment id="49">
							<True/>
							<TreeModel functionName="regression" noTrueChildStrategy="returnLastPrediction" x-mathContext="float">
								<MiningSchema>
									<MiningField name="x1"/>
									<MiningField name="x3"/>
								</MiningSchema>
								<Node score="-0.005983354">
									<True/>
									<Node score="0.0086381445">
										<SimplePredicate field="x1" operator="greaterOrEqual" value="-1.704"/>
										<Node score="-0.005994628">
											<SimplePredicate field="x3" operator="greaterOrEqual" value="-1.7071068"/>
										</Node>
									</Node>
								</Node>
							</TreeModel>
						</Segment>
						<Segment id="50">
							<True/>
							<TreeModel functionName="regression" noTrueChildStrategy="returnLastPrediction" x-mathContext="float">
								<MiningSchema>
									<MiningField name="x1"/>
								</MiningSchema>
								<Node score="-0.0057346337">
									<True/>
									<Node score="-0.005986709">
										<SimplePredicate field="x1" operator="greaterOrEqual" value="-0.18499994"/>
									</Node>
									<Node score="0.00701816">
										<SimplePredicate field="x1" operator="greaterOrEqual" value="-1.9275"/>
									</Node>
								</Node>
							</TreeModel>
						</Segment>
						<Segment id="51">
							<True/>
							<TreeModel functionName="regression" noTrueChildStrategy="returnLastPrediction" x-mathContext="float">
								<MiningSchema>
									<MiningField name="x1"/>
									<MiningField name="x3"/>
								</MiningSchema>
								<Node score="4.4838598E-4">
									<True/>
									<Node score="-0.0058515323">
										<SimplePredicate field="x1" operator="greaterOrEqual" value="-0.12199998"/>
									</Node>
									<Node score="0.015092336">
										<SimplePredicate field="x3" operator="greaterOrEqual" value="-9.660852"/>
									</Node>
								</Node>
							</TreeModel>
						</Segment>
						<Segment id="52">
							<True/>
							<TreeModel functionName="regression" noTrueChildStrategy="returnLastPrediction" x-mathContext="float">
								<MiningSchema>
									<MiningField name="x1"/>
								</MiningSchema>
								<Node score="-0.006058142">
									<True/>
									<Node score="0.010890104">
										<SimplePredicate field="x1" operator="greaterOrEqual" value="-1.6805"/>
										<Node score="-0.0031941468">
											<SimplePredicate field="x1" operator="greaterOrEqual" value="-0.673"/>
										</Node>
									</Node>
								</Node>
							</TreeModel>
						</Segment>
						<Segment id="53">
							<True/>
							<TreeModel functionName="regression" noTrueChildStrategy="returnLastPrediction" x-mathContext="float">
								<MiningSchema>
									<MiningField name="x1"/>
								</MiningSchema>
								<Node score="-0.0060353563">
									<True/>
									<Node score="0.0071439752">
										<SimplePredicate field="x1" operator="greaterOrEqual" value="-1.6805"/>
										<Node score="-0.0058470084">
											<SimplePredicate field="x1" operator="greaterOrEqual" value="-0.12199998"/>
										</Node>
									</Node>
								</Node>
							</TreeModel>
						</Segment>
						<Segment id="54">
							<True/>
							<TreeModel functionName="regression" noTrueChildStrategy="returnLastPrediction" x-mathContext="float">
								<MiningSchema>
									<MiningField name="x1"/>
								</MiningSchema>
								<Node score="-0.006184011">
									<True/>
									<Node score="0.009758942">
										<SimplePredicate field="x1" operator="greaterOrEqual" value="-1.4054999"/>
										<Node score="-0.0018578932">
											<SimplePredicate field="x1" operator="greaterOrEqual" value="-0.584"/>
										</Node>
									</Node>
								</Node>
							</TreeModel>
						</Segment>
						<Segment id="55">
							<True/>
							<TreeModel functionName="regression" noTrueChildStrategy="returnLastPrediction" x-mathContext="float">
								<MiningSchema>
									<MiningField name="x2"/>
									<MiningField name="x4"/>
								</MiningSchema>
								<Node score="0.011196973">
									<True/>
									<Node score="-0.006440881">
										<SimplePredicate field="x2" operator="greaterOrEqual" value="-369.29547"/>
										<Node score="-5.7583035E-4">
											<SimplePredicate field="x4" operator="greaterOrEqual" value="-25.83973"/>
										</Node>
									</Node>
								</Node>
							</TreeModel>
						</Segment>
						<Segment id="56">
							<True/>
							<TreeModel functionName="regression" noTrueChildStrategy="returnLastPrediction" x-mathContext="float">
								<MiningSchema>
									<MiningField name="x1"/>
									<MiningField name="x3"/>
								</MiningSchema>
								<Node score="-0.0030620687">
									<True/>
									<Node score="-0.0061281985">
										<SimplePredicate field="x3" operator="greaterOrEqual" value="-4.106796"/>
									</Node>
									<Node score="0.0077807545">
										<SimplePredicate field="x1" operator="greaterOrEqual" value="-1.5879999"/>
									</Node>
								</Node>
							</TreeModel>
						</Segment>
						<Segment id="57">
							<True/>
							<TreeModel functionName="regression" noTrueChildStrategy="returnLastPrediction" x-mathContext="float">
								<MiningSchema>
									<MiningField name="x1"/>
								</MiningSchema>
								<Node score="-0.0057376404">
									<True/>
									<Node score="-0.0058935815">
										<SimplePredicate field="x1" operator="greaterOrEqual" value="-0.517"/>
									</Node>
									<Node score="0.008843553">
										<SimplePredicate field="x1" operator="greaterOrEqual" value="-2.0549998"/>
									</Node>
								</Node>
							</TreeModel>
						</Segment>
						<Segment id="58">
							<True/>
							<TreeModel functionName="regression" noTrueChildStrategy="returnLastPrediction" x-mathContext="float">
								<MiningSchema>
									<MiningField name="x1"/>
									<MiningField name="x3"/>
								</MiningSchema>
								<Node score="-0.0045995777">
									<True/>
									<Node score="-7.9347583E-4">
										<SimplePredicate field="x3" operator="greaterOrEqual" value="-282.6214"/>
										<Node score="-0.0060610394">
											<SimplePredicate field="x3" operator="greaterOrEqual" value="-4.758089"/>
										</Node>
									</Node>
									<Node score="0.01321192">
										<SimplePredicate field="x1" operator="greaterOrEqual" value="-1.9275"/>
									</Node>
								</Node>
							</TreeModel>
						</Segment>
						<Segment id="59">
							<True/>
							<TreeModel functionName="regression" noTrueChildStrategy="returnLastPrediction" x-mathContext="float">
								<MiningSchema>
									<MiningField name="x1"/>
								</MiningSchema>
								<Node score="-0.005788614">
									<True/>
									<Node score="-0.005889894">
										<SimplePredicate field="x1" operator="greaterOrEqual" value="-0.3115"/>
									</Node>
									<Node score="0.007277307">
										<SimplePredicate field="x1" operator="greaterOrEqual" value="-1.7605"/>
									</Node>
								</Node>
							</TreeModel>
						</Segment>
						<Segment id="60">
							<True/>
							<TreeModel functionName="regression" noTrueChildStrategy="returnLastPrediction" x-mathContext="float">
								<MiningSchema>
									<MiningField name="x1"/>
								</MiningSchema>
								<Node score="-0.005751102">
									<True/>
									<Node score="-0.005989399">
										<SimplePredicate field="x1" operator="greaterOrEqual" value="-0.3125"/>
									</Node>
									<Node score="0.005917634">
										<SimplePredicate field="x1" operator="greaterOrEqual" value="-2.0325"/>
									</Node>
								</Node>
							</TreeModel>
						</Segment>
						<Segment id="61">
							<True/>
							<TreeModel functionName="regression" noTrueChildStrategy="returnLastPrediction" x-mathContext="float">
								<MiningSchema>
									<MiningField name="x1"/>
								</MiningSchema>
								<Node score="-0.0037163838">
									<True/>
									<Node score="-0.005817033">
										<SimplePredicate field="x1" operator="greaterOrEqual" value="-0.12199998"/>
									</Node>
									<Node score="0.005725569">
										<SimplePredicate field="x1" operator="greaterOrEqual" value="-1.4054999"/>
									</Node>
								</Node>
							</TreeModel>
						</Segment>
						<Segment id="62">
							<True/>
							<TreeModel functionName="regression" noTrueChildStrategy="returnLastPrediction" x-mathContext="float">
								<MiningSchema>
									<MiningField name="x1"/>
									<MiningField name="x2"/>
								</MiningSchema>
								<Node score="-0.0026156784">
									<True/>
									<Node score="-0.006014559">
										<SimplePredicate field="x2" operator="greaterOrEqual" value="-45.660454"/>
									</Node>
									<Node score="0.009736595">
										<SimplePredicate field="x1" operator="greaterOrEqual" value="-1.5855"/>
									</Node>
								</Node>
							</TreeModel>
						</Segment>
						<Segment id="63">
							<True/>
							<TreeModel functionName="regression" noTrueChildStrategy="returnLastPrediction" x-mathContext="float">
								<MiningSchema>
									<MiningField name="x1"/>
									<MiningField name="x3"/>
								</MiningSchema>
								<Node score="0.0013882959">
									<True/>
									<Node score="-0.0057055852">
										<SimplePredicate field="x1" operator="greaterOrEqual" value="-0.17199999"/>
									</Node>
									<Node score="0.013436387">
										<SimplePredicate field="x3" operator="greaterOrEqual" value="-17.294577"/>
									</Node>
								</Node>
							</TreeModel>
						</Segment>
						<Segment id="64">
							<True/>
							<TreeModel functionName="regression" noTrueChildStrategy="returnLastPrediction" x-mathContext="float">
								<MiningSchema>
									<MiningField name="x2"/>
									<MiningField name="x3"/>
								</MiningSchema>
								<Node score="-0.0012164125">
									<True/>
									<Node score="-0.005876246">
										<SimplePredicate field="x3" operator="greaterOrEqual" value="-0.5"/>
									</Node>
									<Node score="0.0059325704">
										<SimplePredicate field="x2" operator="greaterOrEqual" value="-135.4757"/>
									</Node>
								</Node>
							</TreeModel>
						</Segment>
						<Segment id="65">
							<True/>
							<TreeModel functionName="regression" noTrueChildStrategy="returnLastPrediction" x-mathContext="float">
								<MiningSchema>
									<MiningField name="x2"/>
									<MiningField name="x4"/>
								</MiningSchema>
								<Node score="0.0111380415">
									<True/>
									<Node score="-0.006456882">
										<SimplePredicate field="x2" operator="greaterOrEqual" value="-285.51788"/>
										<Node score="0.0022890642">
											<SimplePredicate field="x4" operator="greaterOrEqual" value="-63.763176"/>
										</Node>
									</Node>
								</Node>
							</TreeModel>
						</Segment>
						<Segment id="66">
							<True/>
							<TreeModel functionName="regression" noTrueChildStrategy="returnLastPrediction" x-mathContext="float">
								<MiningSchema>
									<MiningField name="x1"/>
									<MiningField name="x3"/>
								</MiningSchema>
								<Node score="-0.004505977">
									<True/>
									<Node score="-0.0057982416">
										<SimplePredicate field="x1" operator="greaterOrEqual" value="-0.17199999"/>
									</Node>
									<Node score="0.0075389007">
										<SimplePredicate field="x3" operator="greaterOrEqual" value="-167.00343"/>
									</Node>
								</Node>
							</TreeModel>
						</Segment>
						<Segment id="67">
							<True/>
							<TreeModel functionName="regression" noTrueChildStrategy="returnLastPrediction" x-mathContext="float">
								<MiningSchema>
									<MiningField name="x1"/>
								</MiningSchema>
								<Node score="-0.0059789764">
									<True/>
									<Node score="0.0062155034">
										<SimplePredicate field="x1" operator="greaterOrEqual" value="-1.4844999"/>
										<Node score="-0.0057476535">
											<SimplePredicate field="x1" operator="greaterOrEqual" value="-0.14850003"/>
										</Node>
									</Node>
								</Node>
							</TreeModel>
						</Segment>
						<Segment id="68">
							<True/>
							<TreeModel functionName="regression" noTrueChildStrategy="returnLastPrediction" x-mathContext="float">
								<MiningSchema>
									<MiningField name="x1"/>
									<MiningField name="x2"/>
								</MiningSchema>
								<Node score="9.96695E-4">
									<True/>
									<Node score="-0.005745692">
										<SimplePredicate field="x1" operator="greaterOrEqual" value="-0.15999997"/>
									</Node>
									<Node score="0.009399638">
										<SimplePredicate field="x2" operator="greaterOrEqual" value="-88.53752"/>
									</Node>
								</Node>
							</TreeModel>
						</Segment>
						<Segment id="69">
							<True/>
							<TreeModel functionName="regression" noTrueChildStrategy="returnLastPrediction" x-mathContext="float">
								<MiningSchema>
									<MiningField name="x1"/>
									<MiningField name="x3"/>
								</MiningSchema>
								<Node score="-0.0028134566">
									<True/>
									<Node score="-0.0057625985">
										<SimplePredicate field="x1" operator="greaterOrEqual" value="-0.091499984"/>
									</Node>
									<Node score="0.009161956">
										<SimplePredicate field="x3" operator="greaterOrEqual" value="-50.07865"/>
									</Node>
								</Node>
							</TreeModel>
						</Segment>
						<Segment id="70">
							<True/>
							<TreeModel functionName="regression" noTrueChildStrategy="returnLastPrediction" x-mathContext="float">
								<MiningSchema>
									<MiningField name="x1"/>
								</MiningSchema>
								<Node score="-0.00580509">
									<True/>
									<Node score="-0.0057547363">
										<SimplePredicate field="x1" operator="greaterOrEqual" value="-0.14700001"/>
									</Node>
									<Node score="0.0053424705">
										<SimplePredicate field="x1" operator="greaterOrEqual" value="-1.704"/>
									</Node>
								</Node>
							</TreeModel>
						</Segment>
						<Segment id="71">
							<True/>
							<TreeModel functionName="regression" noTrueChildStrategy="returnLastPrediction" x-mathContext="float">
								<MiningSchema>
									<MiningField name="x1"/>
									<MiningField name="x3"/>
								</MiningSchema>
								<Node score="-0.0057428842">
									<True/>
									<Node score="-0.005834444">
										<SimplePredicate field="x3" operator="greaterOrEqual" value="-0.5"/>
									</Node>
									<Node score="0.0069651175">
										<SimplePredicate field="x1" operator="greaterOrEqual" value="-1.6115"/>
									</Node>
								</Node>
							</TreeModel>
						</Segment>
						<Segment id="72">
							<True/>
							<TreeModel functionName="regression" noTrueChildStrategy="returnLastPrediction" x-mathContext="float">
								<MiningSchema>
									<MiningField name="x1"/>
									<MiningField name="x2"/>
								</MiningSchema>
								<Node score="-0.0021252471">
									<True/>
									<Node score="-0.00584136">
										<SimplePredicate field="x1" operator="greaterOrEqual" value="-0.17199999"/>
									</Node>
									<Node score="0.007101577">
										<SimplePredicate field="x2" operator="greaterOrEqual" value="-143.74268"/>
									</Node>
								</Node>
							</TreeModel>
						</Segment>
						<Segment id="73">
							<True/>
							<TreeModel functionName="regression" noTrueChildStrategy="returnLastPrediction" x-mathContext="float">
								<MiningSchema>
									<MiningField name="x1"/>
								</MiningSchema>
								<Node score="-0.006115654">
									<True/>
									<Node score="-0.005735493">
										<SimplePredicate field="x1" operator="greaterOrEqual" value="-0.13499993"/>
									</Node>
									<Node score="0.0066035395">
										<SimplePredicate field="x1" operator="greaterOrEqual" value="-1.302"/>
									</Node>
								</Node>
							</TreeModel>
						</Segment>
						<Segment id="74">
							<True/>
							<TreeModel functionName="regression" noTrueChildStrategy="returnLastPrediction" x-mathContext="float">
								<MiningSchema>
									<MiningField name="x1"/>
									<MiningField name="x2"/>
								</MiningSchema>
								<Node score="0.0023338317">
									<True/>
									<Node score="-0.005800276">
										<SimplePredicate field="x1" operator="greaterOrEqual" value="-0.17199999"/>
									</Node>
									<Node score="0.013731467">
										<SimplePredicate field="x2" operator="greaterOrEqual" value="-32.204697"/>
									</Node>
								</Node>
							</TreeModel>
						</Segment>
						<Segment id="75">
							<True/>
							<TreeModel functionName="regression" noTrueChildStrategy="returnLastPrediction" x-mathContext="float">
								<MiningSchema>
									<MiningField name="x2"/>
								</MiningSchema>
								<Node score="-0.006895855">
									<True/>
									<Node score="0.011936803">
										<SimplePredicate field="x2" operator="greaterOrEqual" value="-126.201294"/>
										<Node score="-0.0027499823">
											<SimplePredicate field="x2" operator="greaterOrEqual" value="-115.181015"/>
										</Node>
									</Node>
								</Node>
							</TreeModel>
						</Segment>
						<Segment id="76">
							<True/>
							<TreeModel functionName="regression" noTrueChildStrategy="returnLastPrediction" x-mathContext="float">
								<MiningSchema>
									<MiningField name="x1"/>
									<MiningField name="x3"/>
								</MiningSchema>
								<Node score="4.4671862E-5">
									<True/>
									<Node score="-0.005741408">
										<SimplePredicate field="x1" operator="greaterOrEqual" value="-0.17199999"/>
									</Node>
									<Node score="0.014021475">
										<SimplePredicate field="x3" operator="greaterOrEqual" value="-2.118034"/>
									</Node>
								</Node>
							</TreeModel>
						</Segment>
						<Segment id="77">
							<True/>
							<TreeModel functionName="regression" noTrueChildStrategy="returnLastPrediction" x-mathContext="float">
								<MiningSchema>
									<MiningField name="x1"/>
									<MiningField name="x2"/>
								</MiningSchema>
								<Node score="9.308189E-5">
									<True/>
									<Node score="0.006178695">
										<SimplePredicate field="x2" operator="greaterOrEqual" value="-133.33188"/>
										<Node score="-0.005691836">
											<SimplePredicate field="x1" operator="greaterOrEqual" value="-0.15999997"/>
										</Node>
									</Node>
									<Node score="-0.007518507">
										<SimplePredicate field="x1" operator="greaterOrEqual" value="-0.9165"/>
									</Node>
								</Node>
							</TreeModel>
						</Segment>
						<Segment id="78">
							<True/>
							<TreeModel functionName="regression" noTrueChildStrategy="returnLastPrediction" x-mathContext="float">
								<MiningSchema>
									<MiningField name="x1"/>
									<MiningField name="x4"/>
								</MiningSchema>
								<Node score="-0.0056351246">
									<True/>
									<Node score="-0.006503084">
										<SimplePredicate field="x1" operator="greaterOrEqual" value="-0.602"/>
										<Node score="7.70537E-4">
											<SimplePredicate field="x4" operator="greaterOrEqual" value="-11.020798"/>
										</Node>
									</Node>
									<Node score="0.0109211905">
										<SimplePredicate field="x1" operator="greaterOrEqual" value="-1.9499999"/>
									</Node>
								</Node>
							</TreeModel>
						</Segment>
						<Segment id="79">
							<True/>
							<TreeModel functionName="regression" noTrueChildStrategy="returnLastPrediction" x-mathContext="float">
								<MiningSchema>
									<MiningField name="x1"/>
								</MiningSchema>
								<Node score="-0.005838001">
									<True/>
									<Node score="0.0043521486">
										<SimplePredicate field="x1" operator="greaterOrEqual" value="-1.5855"/>
										<Node score="-0.0056787343">
											<SimplePredicate field="x1" operator="greaterOrEqual" value="-0.14700001"/>
										</Node>
									</Node>
								</Node>
							</TreeModel>
						</Segment>
						<Segment id="80">
							<True/>
							<TreeModel functionName="regression" noTrueChildStrategy="returnLastPrediction" x-mathContext="float">
								<MiningSchema>
									<MiningField name="x1"/>
								</MiningSchema>
								<Node score="-0.005891797">
									<True/>
									<Node score="0.010644426">
										<SimplePredicate field="x1" operator="greaterOrEqual" value="-1.562"/>
										<Node score="6.266275E-4">
											<SimplePredicate field="x1" operator="greaterOrEqual" value="-0.886"/>
										</Node>
									</Node>
								</Node>
							</TreeModel>
						</Segment>
						<Segment id="81">
							<True/>
							<TreeModel functionName="regression" noTrueChildStrategy="returnLastPrediction" x-mathContext="float">
								<MiningSchema>
									<MiningField name="x1"/>
									<MiningField name="x4"/>
								</MiningSchema>
								<Node score="-0.0055046473">
									<True/>
									<Node score="-0.006867934">
										<SimplePredicate field="x4" operator="greaterOrEqual" value="-23.68303"/>
									</Node>
									<Node score="0.0065137413">
										<SimplePredicate field="x1" operator="greaterOrEqual" value="-2.0549998"/>
									</Node>
								</Node>
							</TreeModel>
						</Segment>
						<Segment id="82">
							<True/>
							<TreeModel functionName="regression" noTrueChildStrategy="returnLastPrediction" x-mathContext="float">
								<MiningSchema>
									<MiningField name="x1"/>
									<MiningField name="x2"/>
								</MiningSchema>
								<Node score="2.3106116E-4">
									<True/>
									<Node score="-0.0057103997">
										<SimplePredicate field="x1" operator="greaterOrEqual" value="-0.15999997"/>
									</Node>
									<Node score="0.010907332">
										<SimplePredicate field="x2" operator="greaterOrEqual" value="-52.031284"/>
									</Node>
								</Node>
							</TreeModel>
						</Segment>
						<Segment id="83">
							<True/>
							<TreeModel functionName="regression" noTrueChildStrategy="returnLastPrediction" x-mathContext="float">
								<MiningSchema>
									<MiningField name="x1"/>
									<MiningField name="x4"/>
								</MiningSchema>
								<Node score="-2.2822624E-4">
									<True/>
									<Node score="-0.0056658126">
										<SimplePredicate field="x1" operator="greaterOrEqual" value="-0.18499994"/>
									</Node>
									<Node score="0.013101697">
										<SimplePredicate field="x4" operator="greaterOrEqual" value="-54.447464"/>
									</Node>
								</Node>
							</TreeModel>
						</Segment>
						<Segment id="84">
							<True/>
							<TreeModel functionName="regression" noTrueChildStrategy="returnLastPrediction" x-mathContext="float">
								<MiningSchema>
									<MiningField name="x1"/>
								</MiningSchema>
								<Node score="-0.005506221">
									<True/>
									<Node score="-0.0056963842">
										<SimplePredicate field="x1" operator="greaterOrEqual" value="-0.17199999"/>
									</Node>
									<Node score="0.009402036">
										<SimplePredicate field="x1" operator="greaterOrEqual" value="-2.0549998"/>
									</Node>
								</Node>
							</TreeModel>
						</Segment>
						<Segment id="85">
							<True/>
							<TreeModel functionName="regression" noTrueChildStrategy="returnLastPrediction" x-mathContext="float">
								<MiningSchema>
									<MiningField name="x2"/>
									<MiningField name="x3"/>
								</MiningSchema>
								<Node score="0.010782937">
									<True/>
									<Node score="-0.0053393273">
										<SimplePredicate field="x3" operator="greaterOrEqual" value="-277.78973"/>
										<Node score="0.0011658615">
											<SimplePredicate field="x2" operator="greaterOrEqual" value="-32.981186"/>
										</Node>
									</Node>
								</Node>
							</TreeModel>
						</Segment>
						<Segment id="86">
							<True/>
							<TreeModel functionName="regression" noTrueChildStrategy="returnLastPrediction" x-mathContext="float">
								<MiningSchema>
									<MiningField name="x1"/>
								</MiningSchema>
								<Node score="-0.0058535645">
									<True/>
									<Node score="0.0042128437">
										<SimplePredicate field="x1" operator="greaterOrEqual" value="-1.6805"/>
										<Node score="-0.0038178023">
											<SimplePredicate field="x1" operator="greaterOrEqual" value="-0.54099995"/>
										</Node>
									</Node>
								</Node>
							</TreeModel>
						</Segment>
						<Segment id="87">
							<True/>
							<TreeModel functionName="regression" noTrueChildStrategy="returnLastPrediction" x-mathContext="float">
								<MiningSchema>
									<MiningField name="x1"/>
									<MiningField name="x2"/>
								</MiningSchema>
								<Node score="-0.0013282133">
									<True/>
									<Node score="-0.0064189853">
										<SimplePredicate field="x1" operator="greaterOrEqual" value="-0.627"/>
										<Node score="0.001859852">
											<SimplePredicate field="x2" operator="greaterOrEqual" value="-15.729042"/>
										</Node>
									</Node>
									<Node score="0.0066480334">
										<SimplePredicate field="x1" operator="greaterOrEqual" value="-1.309"/>
									</Node>
								</Node>
							</TreeModel>
						</Segment>
						<Segment id="88">
							<True/>
							<TreeModel functionName="regression" noTrueChildStrategy="returnLastPrediction" x-mathContext="float">
								<MiningSchema>
									<MiningField name="x1"/>
								</MiningSchema>
								<Node score="-0.005682435">
									<True/>
									<Node score="-0.005651666">
										<SimplePredicate field="x1" operator="greaterOrEqual" value="-0.15999997"/>
									</Node>
									<Node score="0.00566863">
										<SimplePredicate field="x1" operator="greaterOrEqual" value="-1.5855"/>
									</Node>
								</Node>
							</TreeModel>
						</Segment>
						<Segment id="89">
							<True/>
							<TreeModel functionName="regression" noTrueChildStrategy="returnLastPrediction" x-mathContext="float">
								<MiningSchema>
									<MiningField name="x1"/>
								</MiningSchema>
								<Node score="-0.005780989">
									<True/>
									<Node score="0.0069663487">
										<SimplePredicate field="x1" operator="greaterOrEqual" value="-1.5879999"/>
										<Node score="-0.002407059">
											<SimplePredicate field="x1" operator="greaterOrEqual" value="-0.52599996"/>
										</Node>
									</Node>
								</Node>
							</TreeModel>
						</Segment>
						<Segment id="90">
							<True/>
							<TreeModel functionName="regression" noTrueChildStrategy="returnLastPrediction" x-mathContext="float">
								<MiningSchema>
									<MiningField name="x1"/>
									<MiningField name="x2"/>
								</MiningSchema>
								<Node score="-0.005483164">
									<True/>
									<Node score="-0.0063533457">
										<SimplePredicate field="x1" operator="greaterOrEqual" value="-0.52549994"/>
										<Node score="-3.155181E-5">
											<SimplePredicate field="x2" operator="greaterOrEqual" value="-8.551303"/>
										</Node>
									</Node>
									<Node score="0.011488614">
										<SimplePredicate field="x1" operator="greaterOrEqual" value="-2.124"/>
									</Node>
								</Node>
							</TreeModel>
						</Segment>
						<Segment id="91">
							<True/>
							<TreeModel functionName="regression" noTrueChildStrategy="returnLastPrediction" x-mathContext="float">
								<MiningSchema>
									<MiningField name="x1"/>
									<MiningField name="x2"/>
									<MiningField name="x4"/>
								</MiningSchema>
								<Node score="0.010064014">
									<True/>
									<Node score="0.01012266">
										<SimplePredicate field="x4" operator="greaterOrEqual" value="-48.12742"/>
										<Node score="-0.005472738">
											<SimplePredicate field="x1" operator="greaterOrEqual" value="-0.15999997"/>
										</Node>
									</Node>
									<Node score="-0.0035584522">
										<SimplePredicate field="x2" operator="greaterOrEqual" value="-387.8391"/>
									</Node>
								</Node>
							</TreeModel>
						</Segment>
						<Segment id="92">
							<True/>
							<TreeModel functionName="regression" noTrueChildStrategy="returnLastPrediction" x-mathContext="float">
								<MiningSchema>
									<MiningField name="x1"/>
								</MiningSchema>
								<Node score="-0.005698357">
									<True/>
									<Node score="0.0071919886">
										<SimplePredicate field="x1" operator="greaterOrEqual" value="-1.6115"/>
										<Node score="-0.005631464">
											<SimplePredicate field="x1" operator="greaterOrEqual" value="-0.14700001"/>
										</Node>
									</Node>
								</Node>
							</TreeModel>
						</Segment>
						<Segment id="93">
							<True/>
							<TreeModel functionName="regression" noTrueChildStrategy="returnLastPrediction" x-mathContext="float">
								<MiningSchema>
									<MiningField name="x1"/>
								</MiningSchema>
								<Node score="-0.0055804006">
									<True/>
									<Node score="-0.005810241">
										<SimplePredicate field="x1" operator="greaterOrEqual" value="-0.3395"/>
									</Node>
									<Node score="0.006061675">
										<SimplePredicate field="x1" operator="greaterOrEqual" value="-1.9275"/>
									</Node>
								</Node>
							</TreeModel>
						</Segment>
						<Segment id="94">
							<True/>
							<TreeModel functionName="regression" noTrueChildStrategy="returnLastPrediction" x-mathContext="float">
								<MiningSchema>
									<MiningField name="x1"/>
								</MiningSchema>
								<Node score="-0.005865422">
									<True/>
									<Node score="-0.0059938384">
										<SimplePredicate field="x1" operator="greaterOrEqual" value="-0.52949995"/>
									</Node>
									<Node score="0.005737914">
										<SimplePredicate field="x1" operator="greaterOrEqual" value="-1.6805"/>
									</Node>
								</Node>
							</TreeModel>
						</Segment>
						<Segment id="95">
							<True/>
							<TreeModel functionName="regression" noTrueChildStrategy="returnLastPrediction" x-mathContext="float">
								<MiningSchema>
									<MiningField name="x1"/>
									<MiningField name="x2"/>
								</MiningSchema>
								<Node score="0.007821395">
									<True/>
									<Node score="0.010243155">
										<SimplePredicate field="x1" operator="greaterOrEqual" value="-1.4844999"/>
										<Node score="8.670261E-4">
											<SimplePredicate field="x1" operator="greaterOrEqual" value="-0.78199995"/>
										</Node>
									</Node>
									<Node score="-0.006120066">
										<SimplePredicate field="x2" operator="greaterOrEqual" value="-295.22662"/>
									</Node>
								</Node>
							</TreeModel>
						</Segment>
						<Segment id="96">
							<True/>
							<TreeModel functionName="regression" noTrueChildStrategy="returnLastPrediction" x-mathContext="float">
								<MiningSchema>
									<MiningField name="x1"/>
								</MiningSchema>
								<Node score="-0.0054776417">
									<True/>
									<Node score="-0.005785684">
										<SimplePredicate field="x1" operator="greaterOrEqual" value="-0.3395"/>
									</Node>
									<Node score="0.004913214">
										<SimplePredicate field="x1" operator="greaterOrEqual" value="-1.7175"/>
									</Node>
								</Node>
							</TreeModel>
						</Segment>
						<Segment id="97">
							<True/>
							<TreeModel functionName="regression" noTrueChildStrategy="returnLastPrediction" x-mathContext="float">
								<MiningSchema>
									<MiningField name="x1"/>
									<MiningField name="x2"/>
								</MiningSchema>
								<Node score="-0.0041311234">
									<True/>
									<Node score="-0.006674871">
										<SimplePredicate field="x2" operator="greaterOrEqual" value="-52.834953"/>
									</Node>
									<Node score="0.0053174337">
										<SimplePredicate field="x1" operator="greaterOrEqual" value="-0.84799993"/>
									</Node>
								</Node>
							</TreeModel>
						</Segment>
						<Segment id="98">
							<True/>
							<TreeModel functionName="regression" noTrueChildStrategy="returnLastPrediction" x-mathContext="float">
								<MiningSchema>
									<MiningField name="x1"/>
									<MiningField name="x4"/>
								</MiningSchema>
								<Node score="0.0030481983">
									<True/>
									<Node score="-0.005461314">
										<SimplePredicate field="x1" operator="greaterOrEqual" value="-0.12199998"/>
									</Node>
									<Node score="0.014472241">
										<SimplePredicate field="x4" operator="greaterOrEqual" value="-12.632169"/>
									</Node>
								</Node>
							</TreeModel>
						</Segment>
						<Segment id="99">
							<True/>
							<TreeModel functionName="regression" noTrueChildStrategy="returnLastPrediction" x-mathContext="float">
								<MiningSchema>
									<MiningField name="x1"/>
								</MiningSchema>
								<Node score="-0.0059765987">
									<True/>
									<Node score="-0.005631477">
										<SimplePredicate field="x1" operator="greaterOrEqual" value="-0.18499994"/>
									</Node>
									<Node score="0.0056927414">
										<SimplePredicate field="x1" operator="greaterOrEqual" value="-1.4844999"/>
									</Node>
								</Node>
							</TreeModel>
						</Segment>
						<Segment id="100">
							<True/>
							<TreeModel functionName="regression" noTrueChildStrategy="returnLastPrediction" x-mathContext="float">
								<MiningSchema>
									<MiningField name="x1"/>
									<MiningField name="x2"/>
								</MiningSchema>
								<Node score="-0.006397763">
									<True/>
									<Node score="0.005627572">
										<SimplePredicate field="x1" operator="greaterOrEqual" value="-0.84799993"/>
										<Node score="-0.005381415">
											<SimplePredicate field="x1" operator="greaterOrEqual" value="-0.091499984"/>
										</Node>
									</Node>
									<Node score="0.011631672">
										<SimplePredicate field="x2" operator="greaterOrEqual" value="-37.172348"/>
									</Node>
								</Node>
							</TreeModel>
						</Segment>
						<Segment id="101">
							<True/>
							<TreeModel functionName="regression" noTrueChildStrategy="returnLastPrediction" x-mathContext="float">
								<MiningSchema>
									<MiningField name="x1"/>
									<MiningField name="x3"/>
								</MiningSchema>
								<Node score="0.013274536">
									<True/>
									<Node score="0.0018852885">
										<SimplePredicate field="x3" operator="greaterOrEqual" value="-279.65863"/>
										<Node score="-0.004049769">
											<SimplePredicate field="x1" operator="greaterOrEqual" value="-0.6785"/>
										</Node>
									</Node>
								</Node>
							</TreeModel>
						</Segment>
						<Segment id="102">
							<True/>
							<TreeModel functionName="regression" noTrueChildStrategy="returnLastPrediction" x-mathContext="float">
								<MiningSchema>
									<MiningField name="x1"/>
									<MiningField name="x4"/>
								</MiningSchema>
								<Node score="0.0013755196">
									<True/>
									<Node score="-0.005595551">
										<SimplePredicate field="x1" operator="greaterOrEqual" value="-0.17199999"/>
									</Node>
									<Node score="0.014271948">
										<SimplePredicate field="x4" operator="greaterOrEqual" value="-11.240921"/>
									</Node>
								</Node>
							</TreeModel>
						</Segment>
						<Segment id="103">
							<True/>
							<TreeModel functionName="regression" noTrueChildStrategy="returnLastPrediction" x-mathContext="float">
								<MiningSchema>
									<MiningField name="x1"/>
									<MiningField name="x2"/>
									<MiningField name="x3"/>
								</MiningSchema>
								<Node score="0.00798145">
									<True/>
									<Node score="0.005483048">
										<SimplePredicate field="x3" operator="greaterOrEqual" value="-22.672619"/>
										<Node score="-0.005455905">
											<SimplePredicate field="x1" operator="greaterOrEqual" value="-0.12499994"/>
										</Node>
									</Node>
									<Node score="-0.0073754024">
										<SimplePredicate field="x2" operator="greaterOrEqual" value="-387.8391"/>
									</Node>
								</Node>
							</TreeModel>
						</Segment>
						<Segment id="104">
							<True/>
							<TreeModel functionName="regression" noTrueChildStrategy="returnLastPrediction" x-mathContext="float">
								<MiningSchema>
									<MiningField name="x1"/>
									<MiningField name="x2"/>
								</MiningSchema>
								<Node score="-0.0056534517">
									<True/>
									<Node score="0.0037627881">
										<SimplePredicate field="x1" operator="greaterOrEqual" value="-0.52549994"/>
										<Node score="-0.0060532116">
											<SimplePredicate field="x2" operator="greaterOrEqual" value="-122.649"/>
										</Node>
									</Node>
									<Node score="0.008632499">
										<SimplePredicate field="x1" operator="greaterOrEqual" value="-1.5325"/>
									</Node>
								</Node>
							</TreeModel>
						</Segment>
					</Segmentation>
				</MiningModel>
			</Segment>
			<Segment id="2">
				<True/>
				<MiningModel functionName="regression" x-mathContext="float">
					<MiningSchema>
						<MiningField name="x1"/>
						<MiningField name="x2"/>
						<MiningField name="x3"/>
						<MiningField name="x4"/>
					</MiningSchema>
					<Output>
						<OutputField name="xgbValue(1)" optype="continuous" dataType="float" isFinalResult="false"/>
					</Output>
					<Targets>
						<Target rescaleConstant="0.5"/>
					</Targets>
					<Segmentation multipleModelMethod="sum" missingPredictionTreatment="returnMissing">
						<Segment id="1">
							<True/>
							<TreeModel functionName="regression" noTrueChildStrategy="returnLastPrediction" x-mathContext="float">
								<MiningSchema>
									<MiningField name="x1"/>
								</MiningSchema>
								<Node score="-0.006425055">
									<True/>
									<Node score="0.013915765">
										<SimplePredicate field="x1" operator="greaterOrEqual" value="-0.692"/>
										<Node score="-0.0056525962">
											<SimplePredicate field="x1" operator="greaterOrEqual" value="1.0935"/>
										</Node>
									</Node>
									<Node score="0.00200182">
										<SimplePredicate field="x1" operator="greaterOrEqual" value="-1.025"/>
									</Node>
								</Node>
							</TreeModel>
						</Segment>
						<Segment id="2">
							<True/>
							<TreeModel functionName="regression" noTrueChildStrategy="returnLastPrediction" x-mathContext="float">
								<MiningSchema>
									<MiningField name="x1"/>
								</MiningSchema>
								<Node score="-0.006383246">
									<True/>
									<Node score="0.013345627">
										<SimplePredicate field="x1" operator="greaterOrEqual" value="-1.138"/>
										<Node score="-0.0057589025">
											<SimplePredicate field="x1" operator="greaterOrEqual" value="0.92149997"/>
										</Node>
									</Node>
								</Node>
							</TreeModel>
						</Segment>
						<Segment id="3">
							<True/>
							<TreeModel functionName="regression" noTrueChildStrategy="returnLastPrediction" x-mathContext="float">
								<MiningSchema>
									<MiningField name="x1"/>
									<MiningField name="x2"/>
								</MiningSchema>
								<Node score="-0.0063991374">
									<True/>
									<Node score="0.017096967">
										<SimplePredicate field="x1" operator="greaterOrEqual" value="-0.69"/>
										<Node score="-4.4871336E-5">
											<SimplePredicate field="x2" operator="greaterOrEqual" value="-6.155061"/>
										</Node>
									</Node>
									<Node score="-0.0027154267">
										<SimplePredicate field="x2" operator="greaterOrEqual" value="-171.85307"/>
									</Node>
								</Node>
							</TreeModel>
						</Segment>
						<Segment id="4">
							<True/>
							<TreeModel functionName="regression" noTrueChildStrategy="returnLastPrediction" x-mathContext="float">
								<MiningSchema>
									<MiningField name="x1"/>
									<MiningField name="x2"/>
								</MiningSchema>
								<Node score="-0.005093684">
									<True/>
									<Node score="0.018300185">
										<SimplePredicate field="x1" operator="greaterOrEqual" value="-0.52549994"/>
										<Node score="-0.006055076">
											<SimplePredicate field="x2" operator="greaterOrEqual" value="-15.638489"/>
										</Node>
									</Node>
									<Node score="0.015360303">
										<SimplePredicate field="x2" operator="greaterOrEqual" value="-38.03872"/>
									</Node>
								</Node>
							</TreeModel>
						</Segment>
						<Segment id="5">
							<True/>
							<TreeModel functionName="regression" noTrueChildStrategy="returnLastPrediction" x-mathContext="float">
								<MiningSchema>
									<MiningField name="x1"/>
								</MiningSchema>
								<Node score="-0.0063987984">
									<True/>
									<Node score="0.014249463">
										<SimplePredicate field="x1" operator="greaterOrEqual" value="-0.52549994"/>
										<Node score="-0.0056079156">
											<SimplePredicate field="x1" operator="greaterOrEqual" value="1.1115"/>
										</Node>
									</Node>
									<Node score="0.0018426793">
										<SimplePredicate field="x1" operator="greaterOrEqual" value="-0.6955"/>
									</Node>
								</Node>
							</TreeModel>
						</Segment>
						<Segment id="6">
							<True/>
							<TreeModel functionName="regression" noTrueChildStrategy="returnLastPrediction" x-mathContext="float">
								<MiningSchema>
									<MiningField name="x1"/>
								</MiningSchema>
								<Node score="-0.0063408623">
									<True/>
									<Node score="0.013475372">
										<SimplePredicate field="x1" operator="greaterOrEqual" value="-1.0345"/>
										<Node score="-0.0057114703">
											<SimplePredicate field="x1" operator="greaterOrEqual" value="0.9865"/>
										</Node>
									</Node>
								</Node>
							</TreeModel>
						</Segment>
						<Segment id="7">
							<True/>
							<TreeModel functionName="regression" noTrueChildStrategy="returnLastPrediction" x-mathContext="float">
								<MiningSchema>
									<MiningField name="x1"/>
									<MiningField name="x2"/>
								</MiningSchema>
								<Node score="-0.006386016">
									<True/>
									<Node score="0.011223797">
										<SimplePredicate field="x1" operator="greaterOrEqual" value="-0.6785"/>
										<Node score="-0.0060072592">
											<SimplePredicate field="x2" operator="greaterOrEqual" value="-7.292926"/>
										</Node>
									</Node>
									<Node score="-0.0013563388">
										<SimplePredicate field="x1" operator="greaterOrEqual" value="-0.8635"/>
									</Node>
								</Node>
							</TreeModel>
						</Segment>
						<Segment id="8">
							<True/>
							<TreeModel functionName="regression" noTrueChildStrategy="returnLastPrediction" x-mathContext="float">
								<MiningSchema>
									<MiningField name="x1"/>
									<MiningField name="x2"/>
								</MiningSchema>
								<Node score="-0.0063640485">
									<True/>
									<Node score="-0.0058433064">
										<SimplePredicate field="x1" operator="greaterOrEqual" value="-0.85249996"/>
										<Node score="0.011427309">
											<SimplePredicate field="x2" operator="greaterOrEqual" value="-294.85974"/>
										</Node>
									</Node>
								</Node>
							</TreeModel>
						</Segment>
						<Segment id="9">
							<True/>
							<TreeModel functionName="regression" noTrueChildStrategy="returnLastPrediction" x-mathContext="float">
								<MiningSchema>
									<MiningField name="x1"/>
									<MiningField name="x2"/>
								</MiningSchema>
								<Node score="-0.0011649232">
									<True/>
									<Node score="0.011591261">
										<SimplePredicate field="x1" operator="greaterOrEqual" value="-0.6785"/>
										<Node score="-0.005802264">
											<SimplePredicate field="x2" operator="greaterOrEqual" value="-2.1213202"/>
										</Node>
									</Node>
									<Node score="-0.0063812626">
										<SimplePredicate field="x2" operator="greaterOrEqual" value="-255.89053"/>
									</Node>
								</Node>
							</TreeModel>
						</Segment>
						<Segment id="10">
							<True/>
							<TreeModel functionName="regression" noTrueChildStrategy="returnLastPrediction" x-mathContext="float">
								<MiningSchema>
									<MiningField name="x1"/>
									<MiningField name="x2"/>
								</MiningSchema>
								<Node score="-0.0062842825">
									<True/>
									<Node score="-0.0061218985">
										<SimplePredicate field="x1" operator="greaterOrEqual" value="-1.0345"/>
										<Node score="0.009762368">
											<SimplePredicate field="x2" operator="greaterOrEqual" value="-291.3591"/>
										</Node>
									</Node>
								</Node>
							</TreeModel>
						</Segment>
						<Segment id="11">
							<True/>
							<TreeModel functionName="regression" noTrueChildStrategy="returnLastPrediction" x-mathContext="float">
								<MiningSchema>
									<MiningField name="x1"/>
								</MiningSchema>
								<Node score="-0.006296508">
									<True/>
									<Node score="0.0132652">
										<SimplePredicate field="x1" operator="greaterOrEqual" value="-0.69"/>
										<Node score="-0.005625996">
											<SimplePredicate field="x1" operator="greaterOrEqual" value="1.1515"/>
										</Node>
									</Node>
									<Node score="0.0019217497">
										<SimplePredicate field="x1" operator="greaterOrEqual" value="-0.9165"/>
									</Node>
								</Node>
							</TreeModel>
						</Segment>
						<Segment id="12">
							<True/>
							<TreeModel functionName="regression" noTrueChildStrategy="returnLastPrediction" x-mathContext="float">
								<MiningSchema>
									<MiningField name="x1"/>
									<MiningField name="x2"/>
								</MiningSchema>
								<Node score="-0.006268766">
									<True/>
									<Node score="0.010181184">
										<SimplePredicate field="x1" operator="greaterOrEqual" value="-0.9585"/>
										<Node score="-0.0057320874">
											<SimplePredicate field="x2" operator="greaterOrEqual" value="-2.5098825"/>
										</Node>
									</Node>
								</Node>
							</TreeModel>
						</Segment>
						<Segment id="13">
							<True/>
							<TreeModel functionName="regression" noTrueChildStrategy="returnLastPrediction" x-mathContext="float">
								<MiningSchema>
									<MiningField name="x1"/>
								</MiningSchema>
								<Node score="-0.0062939664">
									<True/>
									<Node score="0.010695507">
										<SimplePredicate field="x1" operator="greaterOrEqual" value="-0.66999996"/>
										<Node score="-0.0057338662">
											<SimplePredicate field="x1" operator="greaterOrEqual" value="0.9865"/>
										</Node>
									</Node>
									<Node score="-0.0028614104">
										<SimplePredicate field="x1" operator="greaterOrEqual" value="-1.025"/>
									</Node>
								</Node>
							</TreeModel>
						</Segment>
						<Segment id="14">
							<True/>
							<TreeModel functionName="regression" noTrueChildStrategy="returnLastPrediction" x-mathContext="float">
								<MiningSchema>
									<MiningField name="x3"/>
									<MiningField name="x4"/>
								</MiningSchema>
								<Node score="-0.006411208">
									<True/>
									<Node score="0.01107585">
										<SimplePredicate field="x3" operator="greaterOrEqual" value="-27.32579"/>
										<Node score="-0.0032904295">
											<SimplePredicate field="x4" operator="greaterOrEqual" value="-10.315073"/>
										</Node>
									</Node>
								</Node>
							</TreeModel>
						</Segment>
						<Segment id="15">
							<True/>
							<TreeModel functionName="regression" noTrueChildStrategy="returnLastPrediction" x-mathContext="float">
								<MiningSchema>
									<MiningField name="x1"/>
									<MiningField name="x2"/>
								</MiningSchema>
								<Node score="-0.0062490576">
									<True/>
									<Node score="-0.006127791">
										<SimplePredicate field="x1" operator="greaterOrEqual" value="-0.891"/>
										<Node score="0.011863576">
											<SimplePredicate field="x2" operator="greaterOrEqual" value="-294.85974"/>
										</Node>
									</Node>
								</Node>
							</TreeModel>
						</Segment>
						<Segment id="16">
							<True/>
							<TreeModel functionName="regression" noTrueChildStrategy="returnLastPrediction" x-mathContext="float">
								<MiningSchema>
									<MiningField name="x1"/>
									<MiningField name="x2"/>
								</MiningSchema>
								<Node score="-0.0062593864">
									<True/>
									<Node score="0.012872244">
										<SimplePredicate field="x1" operator="greaterOrEqual" value="-0.6785"/>
										<Node score="-0.0058211624">
											<SimplePredicate field="x2" operator="greaterOrEqual" value="-2.5098825"/>
										</Node>
									</Node>
									<Node score="-0.001474299">
										<SimplePredicate field="x1" operator="greaterOrEqual" value="-0.9585"/>
									</Node>
								</Node>
							</TreeModel>
						</Segment>
						<Segment id="17">
							<True/>
							<TreeModel functionName="regression" noTrueChildStrategy="returnLastPrediction" x-mathContext="float">
								<MiningSchema>
									<MiningField name="x1"/>
									<MiningField name="x2"/>
									<MiningField name="x3"/>
								</MiningSchema>
								<Node score="-0.0052094315">
									<True/>
									<Node score="0.014201731">
										<SimplePredicate field="x1" operator="greaterOrEqual" value="-0.52549994"/>
										<Node score="-3.3571915E-4">
											<SimplePredicate field="x2" operator="greaterOrEqual" value="-6.155061"/>
										</Node>
									</Node>
									<Node score="0.013663866">
										<SimplePredicate field="x3" operator="greaterOrEqual" value="-3.5"/>
									</Node>
								</Node>
							</TreeModel>
						</Segment>
						<Segment id="18">
							<True/>
							<TreeModel functionName="regression" noTrueChildStrategy="returnLastPrediction" x-mathContext="float">
								<MiningSchema>
									<MiningField name="x1"/>
								</MiningSchema>
								<Node score="-0.0063019195">
									<True/>
									<Node score="0.0153137585">
										<SimplePredicate field="x1" operator="greaterOrEqual" value="-0.062000036"/>
										<Node score="-0.005830437">
											<SimplePredicate field="x1" operator="greaterOrEqual" value="1.1115"/>
										</Node>
									</Node>
									<Node score="4.6520072E-4">
										<SimplePredicate field="x1" operator="greaterOrEqual" value="-0.673"/>
									</Node>
								</Node>
							</TreeModel>
						</Segment>
						<Segment id="19">
							<True/>
							<TreeModel functionName="regression" noTrueChildStrategy="returnLastPrediction" x-mathContext="float">
								<MiningSchema>
									<MiningField name="x1"/>
								</MiningSchema>
								<Node score="-0.006254498">
									<True/>
									<Node score="0.013113572">
										<SimplePredicate field="x1" operator="greaterOrEqual" value="-0.612"/>
										<Node score="-0.005514314">
											<SimplePredicate field="x1" operator="greaterOrEqual" value="1.1515"/>
										</Node>
									</Node>
									<Node score="-0.0022522993">
										<SimplePredicate field="x1" operator="greaterOrEqual" value="-0.8145"/>
									</Node>
								</Node>
							</TreeModel>
						</Segment>
						<Segment id="20">
							<True/>
							<TreeModel functionName="regression" noTrueChildStrategy="returnLastPrediction" x-mathContext="float">
								<MiningSchema>
									<MiningField name="x1"/>
									<MiningField name="x3"/>
									<MiningField name="x4"/>
								</MiningSchema>
								<Node score="0.0013667407">
									<True/>
									<Node score="-0.0063891783">
										<SimplePredicate field="x1" operator="greaterOrEqual" value="-0.66999996"/>
										<Node score="0.010168042">
											<SimplePredicate field="x4" operator="greaterOrEqual" value="-104.156555"/>
										</Node>
									</Node>
									<Node score="-0.0063770823">
										<SimplePredicate field="x3" operator="greaterOrEqual" value="-210.19461"/>
									</Node>
								</Node>
							</TreeModel>
						</Segment>
						<Segment id="21">
							<True/>
							<TreeModel functionName="regression" noTrueChildStrategy="returnLastPrediction" x-mathContext="float">
								<MiningSchema>
									<MiningField name="x1"/>
									<MiningField name="x2"/>
									<MiningField name="x3"/>
								</MiningSchema>
								<Node score="-0.004373827">
									<True/>
									<Node score="0.015087458">
										<SimplePredicate field="x1" operator="greaterOrEqual" value="-0.54099995"/>
										<Node score="-7.1448664E-4">
											<SimplePredicate field="x2" operator="greaterOrEqual" value="-13.108425"/>
										</Node>
									</Node>
									<Node score="0.013388867">
										<SimplePredicate field="x3" operator="greaterOrEqual" value="-3.216989"/>
									</Node>
								</Node>
							</TreeModel>
						</Segment>
						<Segment id="22">
							<True/>
							<TreeModel functionName="regression" noTrueChildStrategy="returnLastPrediction" x-mathContext="float">
								<MiningSchema>
									<MiningField name="x1"/>
								</MiningSchema>
								<Node score="-0.006172856">
									<True/>
									<Node score="0.014927833">
										<SimplePredicate field="x1" operator="greaterOrEqual" value="-0.3115"/>
										<Node score="-0.005699567">
											<SimplePredicate field="x1" operator="greaterOrEqual" value="0.92149997"/>
										</Node>
									</Node>
									<Node score="-2.734692E-4">
										<SimplePredicate field="x1" operator="greaterOrEqual" value="-1.0415"/>
									</Node>
								</Node>
							</TreeModel>
						</Segment>
						<Segment id="23">
							<True/>
							<TreeModel functionName="regression" noTrueChildStrategy="returnLastPrediction" x-mathContext="float">
								<MiningSchema>
									<MiningField name="x1"/>
									<MiningField name="x3"/>
								</MiningSchema>
								<Node score="0.0028708708">
									<True/>
									<Node score="0.014565397">
										<SimplePredicate field="x1" operator="greaterOrEqual" value="-0.07499999"/>
										<Node score="-0.005612342">
											<SimplePredicate field="x1" operator="greaterOrEqual" value="1.1115"/>
										</Node>
									</Node>
									<Node score="-0.006562697">
										<SimplePredicate field="x3" operator="greaterOrEqual" value="-63.222027"/>
									</Node>
								</Node>
							</TreeModel>
						</Segment>
						<Segment id="24">
							<True/>
							<TreeModel functionName="regression" noTrueChildStrategy="returnLastPrediction" x-mathContext="float">
								<MiningSchema>
									<MiningField name="x1"/>
								</MiningSchema>
								<Node score="-0.00623789">
									<True/>
									<Node score="0.009429842">
										<SimplePredicate field="x1" operator="greaterOrEqual" value="-0.52549994"/>
										<Node score="-0.0057162563">
											<SimplePredicate field="x1" operator="greaterOrEqual" value="1.1315"/>
										</Node>
									</Node>
									<Node score="-0.002256553">
										<SimplePredicate field="x1" operator="greaterOrEqual" value="-0.79249996"/>
									</Node>
								</Node>
							</TreeModel>
						</Segment>
						<Segment id="25">
							<True/>
							<TreeModel functionName="regression" noTrueChildStrategy="returnLastPrediction" x-mathContext="float">
								<MiningSchema>
									<MiningField name="x1"/>
									<MiningField name="x3"/>
								</MiningSchema>
								<Node score="-0.0052193655">
									<True/>
									<Node score="0.014406934">
										<SimplePredicate field="x1" operator="greaterOrEqual" value="-0.3115"/>
										<Node score="-0.0057707597">
											<SimplePredicate field="x1" operator="greaterOrEqual" value="0.9865"/>
										</Node>
									</Node>
									<Node score="0.0042204075">
										<SimplePredicate field="x3" operator="greaterOrEqual" value="-3.9142137"/>
									</Node>
								</Node>
							</TreeModel>
						</Segment>
						<Segment id="26">
							<True/>
							<TreeModel functionName="regression" noTrueChildStrategy="returnLastPrediction" x-mathContext="float">
								<MiningSchema>
									<MiningField name="x1"/>
									<MiningField name="x2"/>
								</MiningSchema>
								<Node score="-0.0061311084">
									<True/>
									<Node score="0.0087349">
										<SimplePredicate field="x1" operator="greaterOrEqual" value="-0.89699996"/>
										<Node score="-0.0057730475">
											<SimplePredicate field="x2" operator="greaterOrEqual" value="-4.312658"/>
										</Node>
									</Node>
								</Node>
							</TreeModel>
						</Segment>
						<Segment id="27">
							<True/>
							<TreeModel functionName="regression" noTrueChildStrategy="returnLastPrediction" x-mathContext="float">
								<MiningSchema>
									<MiningField name="x1"/>
									<MiningField name="x3"/>
								</MiningSchema>
								<Node score="-0.006124038">
									<True/>
									<Node score="0.015723875">
										<SimplePredicate field="x1" operator="greaterOrEqual" value="-0.886"/>
										<Node score="0.0028864713">
											<SimplePredicate field="x3" operator="greaterOrEqual" value="-212.28024"/>
										</Node>
									</Node>
								</Node>
							</TreeModel>
						</Segment>
						<Segment id="28">
							<True/>
							<TreeModel functionName="regression" noTrueChildStrategy="returnLastPrediction" x-mathContext="float">
								<MiningSchema>
									<MiningField name="x1"/>
								</MiningSchema>
								<Node score="-0.006081092">
									<True/>
									<Node score="0.0118403435">
										<SimplePredicate field="x1" operator="greaterOrEqual" value="-0.584"/>
										<Node score="-0.005635575">
											<SimplePredicate field="x1" operator="greaterOrEqual" value="0.7005"/>
										</Node>
									</Node>
									<Node score="2.576713E-4">
										<SimplePredicate field="x1" operator="greaterOrEqual" value="-0.9925"/>
									</Node>
								</Node>
							</TreeModel>
						</Segment>
						<Segment id="29">
							<True/>
							<TreeModel functionName="regression" noTrueChildStrategy="returnLastPrediction" x-mathContext="float">
								<MiningSchema>
									<MiningField name="x1"/>
									<MiningField name="x2"/>
								</MiningSchema>
								<Node score="-0.005110285">
									<True/>
									<Node score="0.013868671">
										<SimplePredicate field="x1" operator="greaterOrEqual" value="-0.18499994"/>
										<Node score="-0.0054719984">
											<SimplePredicate field="x2" operator="greaterOrEqual" value="-2.1213202"/>
										</Node>
									</Node>
									<Node score="0.0014799617">
										<SimplePredicate field="x1" operator="greaterOrEqual" value="-0.61149997"/>
									</Node>
								</Node>
							</TreeModel>
						</Segment>
						<Segment id="30">
							<True/>
							<TreeModel functionName="regression" noTrueChildStrategy="returnLastPrediction" x-mathContext="float">
								<MiningSchema>
									<MiningField name="x1"/>
									<MiningField name="x3"/>
								</MiningSchema>
								<Node score="-5.06852E-4">
									<True/>
									<Node score="0.009121698">
										<SimplePredicate field="x3" operator="greaterOrEqual" value="-6.5555305"/>
										<Node score="-0.0057256324">
											<SimplePredicate field="x1" operator="greaterOrEqual" value="0.92149997"/>
										</Node>
									</Node>
									<Node score="-0.0063943486">
										<SimplePredicate field="x3" operator="greaterOrEqual" value="-170.37364"/>
									</Node>
								</Node>
							</TreeModel>
						</Segment>
						<Segment id="31">
							<True/>
							<TreeModel functionName="regression" noTrueChildStrategy="returnLastPrediction" x-mathContext="float">
								<MiningSchema>
									<MiningField name="x1"/>
									<MiningField name="x2"/>
									<MiningField name="x3"/>
								</MiningSchema>
								<Node score="-7.6235324E-4">
									<True/>
									<Node score="0.012168531">
										<SimplePredicate field="x1" operator="greaterOrEqual" value="-0.673"/>
										<Node score="-0.005646785">
											<SimplePredicate field="x2" operator="greaterOrEqual" value="-2.1213202"/>
										</Node>
									</Node>
									<Node score="-0.00621734">
										<SimplePredicate field="x3" operator="greaterOrEqual" value="-170.37364"/>
									</Node>
								</Node>
							</TreeModel>
						</Segment>
						<Segment id="32">
							<True/>
							<TreeModel functionName="regression" noTrueChildStrategy="returnLastPrediction" x-mathContext="float">
								<MiningSchema>
									<MiningField name="x1"/>
									<MiningField name="x4"/>
								</MiningSchema>
								<Node score="-0.006316916">
									<True/>
									<Node score="0.0105319815">
										<SimplePredicate field="x1" operator="greaterOrEqual" value="-0.51699996"/>
										<Node score="-9.501071E-4">
											<SimplePredicate field="x4" operator="greaterOrEqual" value="-1.7071068"/>
										</Node>
									</Node>
								</Node>
							</TreeModel>
						</Segment>
						<Segment id="33">
							<True/>
							<TreeModel functionName="regression" noTrueChildStrategy="returnLastPrediction" x-mathContext="float">
								<MiningSchema>
									<MiningField name="x2"/>
									<MiningField name="x3"/>
									<MiningField name="x4"/>
								</MiningSchema>
								<Node score="-0.004712643">
									<True/>
									<Node score="0.012342696">
										<SimplePredicate field="x4" operator="greaterOrEqual" value="-20.468143"/>
										<Node score="-0.0023365167">
											<SimplePredicate field="x2" operator="greaterOrEqual" value="-10.327089"/>
										</Node>
									</Node>
									<Node score="0.0129753975">
										<SimplePredicate field="x3" operator="greaterOrEqual" value="-3.9142137"/>
									</Node>
								</Node>
							</TreeModel>
						</Segment>
						<Segment id="34">
							<True/>
							<TreeModel functionName="regression" noTrueChildStrategy="returnLastPrediction" x-mathContext="float">
								<MiningSchema>
									<MiningField name="x1"/>
									<MiningField name="x2"/>
								</MiningSchema>
								<Node score="-0.0060953703">
									<True/>
									<Node score="0.012094902">
										<SimplePredicate field="x1" operator="greaterOrEqual" value="-0.33850002"/>
										<Node score="-0.0052576647">
											<SimplePredicate field="x2" operator="greaterOrEqual" value="-1.9142135"/>
										</Node>
									</Node>
									<Node score="0.002140601">
										<SimplePredicate field="x1" operator="greaterOrEqual" value="-0.8145"/>
									</Node>
								</Node>
							</TreeModel>
						</Segment>
						<Segment id="35">
							<True/>
							<TreeModel functionName="regression" noTrueChildStrategy="returnLastPrediction" x-mathContext="float">
								<MiningSchema>
									<MiningField name="x1"/>
									<MiningField name="x3"/>
								</MiningSchema>
								<Node score="0.0022386368">
									<True/>
									<Node score="0.012676492">
										<SimplePredicate field="x1" operator="greaterOrEqual" value="-0.12199998"/>
										<Node score="-0.0055116224">
											<SimplePredicate field="x1" operator="greaterOrEqual" value="0.6845"/>
										</Node>
									</Node>
									<Node score="-0.0052236235">
										<SimplePredicate field="x3" operator="greaterOrEqual" value="-196.52054"/>
									</Node>
								</Node>
							</TreeModel>
						</Segment>
						<Segment id="36">
							<True/>
							<TreeModel functionName="regression" noTrueChildStrategy="returnLastPrediction" x-mathContext="float">
								<MiningSchema>
									<MiningField name="x1"/>
								</MiningSchema>
								<Node score="-0.006197277">
									<True/>
									<Node score="0.01217284">
										<SimplePredicate field="x1" operator="greaterOrEqual" value="-0.52949995"/>
										<Node score="-0.0057544806">
											<SimplePredicate field="x1" operator="greaterOrEqual" value="0.66700006"/>
										</Node>
									</Node>
									<Node score="-0.0020115697">
										<SimplePredicate field="x1" operator="greaterOrEqual" value="-0.66999996"/>
									</Node>
								</Node>
							</TreeModel>
						</Segment>
						<Segment id="37">
							<True/>
							<TreeModel functionName="regression" noTrueChildStrategy="returnLastPrediction" x-mathContext="float">
								<MiningSchema>
									<MiningField name="x1"/>
									<MiningField name="x2"/>
								</MiningSchema>
								<Node score="-0.006100684">
									<True/>
									<Node score="-0.006242489">
										<SimplePredicate field="x1" operator="greaterOrEqual" value="-0.8145"/>
										<Node score="0.0085649155">
											<SimplePredicate field="x2" operator="greaterOrEqual" value="-291.79037"/>
										</Node>
									</Node>
								</Node>
							</TreeModel>
						</Segment>
						<Segment id="38">
							<True/>
							<TreeModel functionName="regression" noTrueChildStrategy="returnLastPrediction" x-mathContext="float">
								<MiningSchema>
									<MiningField name="x1"/>
									<MiningField name="x2"/>
								</MiningSchema>
								<Node score="-0.006048639">
									<True/>
									<Node score="0.009778028">
										<SimplePredicate field="x1" operator="greaterOrEqual" value="-0.9585"/>
										<Node score="-0.0025514036">
											<SimplePredicate field="x2" operator="greaterOrEqual" value="-15.043989"/>
										</Node>
									</Node>
								</Node>
							</TreeModel>
						</Segment>
						<Segment id="39">
							<True/>
							<TreeModel functionName="regression" noTrueChildStrategy="returnLastPrediction" x-mathContext="float">
								<MiningSchema>
									<MiningField name="x1"/>
									<MiningField name="x3"/>
								</MiningSchema>
								<Node score="0.0043295864">
									<True/>
									<Node score="0.010258018">
										<SimplePredicate field="x1" operator="greaterOrEqual" value="-0.61149997"/>
										<Node score="-0.005324414">
											<SimplePredicate field="x1" operator="greaterOrEqual" value="1.1515"/>
										</Node>
									</Node>
									<Node score="-0.0062339813">
										<SimplePredicate field="x3" operator="greaterOrEqual" value="-186.87454"/>
									</Node>
								</Node>
							</TreeModel>
						</Segment>
						<Segment id="40">
							<True/>
							<TreeModel functionName="regression" noTrueChildStrategy="returnLastPrediction" x-mathContext="float">
								<MiningSchema>
									<MiningField name="x1"/>
								</MiningSchema>
								<Node score="-0.0060301214">
